{"sizes":[10,5,2],"layers":[{"0":{},"1":{},"2":{},"3":{},"4":{},"5":{},"6":{},"7":{},"8":{},"9":{}},{"0":{"bias":12.958807945251465,"weights":{"0":-10.481982231140137,"1":-11.718348503112793,"2":-13.579259872436523,"3":0.7398642301559448,"4":-5.94230318069458,"5":1.2358516454696655,"6":-4.86161994934082,"7":0.8479267954826355,"8":-5.06927490234375,"9":0.8216034173965454}},"1":{"bias":17.20806884765625,"weights":{"0":-15.788941383361816,"1":108.8887710571289,"2":-3.3964340686798096,"3":-9.099701881408691,"4":-0.2356582134962082,"5":1.2627726793289185,"6":0.20087186992168427,"7":5.096111297607422,"8":-5.069453239440918,"9":5.193613052368164}},"2":{"bias":-1.1099010705947876,"weights":{"0":-3.276431083679199,"1":5.672168731689453,"2":1.3972320556640625,"3":-3.327906847000122,"4":2.84921932220459,"5":0.46175602078437805,"6":-1.3032231330871582,"7":-2.9428305625915527,"8":4.704173564910889,"9":0.11387885361909866}},"3":{"bias":52.621585845947266,"weights":{"0":-57.866363525390625,"1":28.209373474121094,"2":-10.10515022277832,"3":-22.14544677734375,"4":-1.1641149520874023,"5":14.832574844360352,"6":-17.69483184814453,"7":-1.4591217041015625,"8":20.73137664794922,"9":-3.920424461364746}},"4":{"bias":1.1170059442520142,"weights":{"0":-4.022987365722656,"1":-3.8059887886047363,"2":-9.49075698852539,"3":-1.0444200038909912,"4":-2.2012546062469482,"5":-0.3170754015445709,"6":-1.334733247756958,"7":-1.494432806968689,"8":-0.3879442512989044,"9":-0.8337793350219727}}},{"keyword":{"bias":2.8918328285217285,"weights":{"0":-1.080182671546936,"1":-3.428774356842041,"2":-2.145190954208374,"3":-0.7896280288696289,"4":-1.84982168674469}},"notKeyword":{"bias":-2.8918323516845703,"weights":{"0":1.0801829099655151,"1":3.4287736415863037,"2":2.1451914310455322,"3":0.7896276712417603,"4":1.849822998046875}}}],"outputLookup":true,"inputLookup":false,"activation":"sigmoid","trainOpts":{"iterations":20000,"errorThresh":0.005,"log":true,"logPeriod":10,"learningRate":0.3,"momentum":0.1,"callbackPeriod":10}}