{"sizes":[13,6,2],"layers":[{"0":{},"1":{},"2":{},"3":{},"4":{},"5":{},"6":{},"7":{},"8":{},"9":{},"10":{},"11":{},"12":{}},{"0":{"bias":-26.84002685546875,"weights":{"0":27.015026092529297,"1":19.093965530395508,"2":-17.296607971191406,"3":10.55714225769043,"4":10.503630638122559,"5":-5.113874435424805,"6":-12.85324764251709,"7":-0.47508305311203003,"8":3.717803716659546,"9":3.0818448066711426,"10":7.464236259460449,"11":-6.63431978225708,"12":0.763720691204071}},"1":{"bias":-30.26642608642578,"weights":{"0":11.213374137878418,"1":-24.614513397216797,"2":13.529422760009766,"3":-6.545228958129883,"4":32.00047302246094,"5":23.90677833557129,"6":-0.7748822569847107,"7":21.523046493530273,"8":-4.292398929595947,"9":3.874772310256958,"10":-4.530212879180908,"11":8.069038391113281,"12":1.586255431175232}},"2":{"bias":-5.949557304382324,"weights":{"0":-5.017049312591553,"1":-2.205848217010498,"2":-5.423861026763916,"3":16.011859893798828,"4":9.352166175842285,"5":-3.4324638843536377,"6":4.49102258682251,"7":1.1094328165054321,"8":-6.111682415008545,"9":4.243391036987305,"10":-5.646783828735352,"11":-5.895979404449463,"12":3.668947696685791}},"3":{"bias":-9.02249526977539,"weights":{"0":10.896204948425293,"1":-8.272150993347168,"2":9.943719863891602,"3":0.33934900164604187,"4":4.930400371551514,"5":-5.350668907165527,"6":-5.323641300201416,"7":-6.792689323425293,"8":0.6218166947364807,"9":3.750812530517578,"10":-3.8522322177886963,"11":-0.546615481376648,"12":6.398910999298096}},"4":{"bias":49.732269287109375,"weights":{"0":23.86224937438965,"1":15.82986831665039,"2":-161.9248504638672,"3":5.086453914642334,"4":1.1904871463775635,"5":-60.166873931884766,"6":-19.64891815185547,"7":-17.33588409423828,"8":-0.0728343278169632,"9":-8.049127578735352,"10":-1.634945273399353,"11":-1.484269142150879,"12":-9.07299518585205}},"5":{"bias":-5.519240856170654,"weights":{"0":-29.168987274169922,"1":11.51369571685791,"2":33.88766098022461,"3":1.1147311925888062,"4":-2.3609228134155273,"5":0.18231301009655,"6":-2.416015863418579,"7":-5.545748233795166,"8":4.72733211517334,"9":0.414381206035614,"10":3.9767799377441406,"11":-0.7933085560798645,"12":-1.597045660018921}}},{"keyword":{"bias":-0.34644296765327454,"weights":{"0":-2.790818214416504,"1":-1.5599942207336426,"2":-2.2719783782958984,"3":-3.8341708183288574,"4":-2.474107503890991,"5":-3.1860029697418213}},"notKeyword":{"bias":0.34644243121147156,"weights":{"0":2.7908174991607666,"1":1.5599946975708008,"2":2.2719781398773193,"3":3.8341715335845947,"4":2.4741079807281494,"5":3.1860034465789795}}}],"outputLookup":true,"inputLookup":false,"activation":"sigmoid","trainOpts":{"iterations":20000,"errorThresh":0.005,"log":true,"logPeriod":10,"learningRate":0.3,"momentum":0.1,"callbackPeriod":10}}